genomestart 1
trait 1 0.876615 0 0.161901 0 0.228905 0.0395899 0.456514 0.686965 
trait 2 0.11875 0 0.373824 0.380229 0.0789746 0 0 0 
trait 3 0.697809 0.289345 0.550734 0 0.0773517 0.617038 0.0111847 0.329826 
node 1 2 1 3
node 2 1 1 1
node 3 1 1 1
node 4 3 0 2
node 5 3 0 2
node 17 1 0 0
node 46 1 0 0
gene 1 1 4 1.57924 0 1 1.57924 1
gene 3 2 4 0.0267779 0 2 0.0267779 1
gene 2 3 4 -2.76231 0 3 -2.76231 1
gene 2 1 5 1.40155 0 1 1.40155 1
gene 2 2 5 -3.54302 0 2 -3.54302 1
gene 2 3 5 0.189406 0 3 0.189406 1
gene 2 4 5 -0.438135 0 30 -0.438135 0
gene 1 3 17 -0.905845 0 120 -0.905845 1
gene 2 17 4 -0.509944 0 121 -0.509944 1
gene 3 17 5 -1.20872 0 169 -1.20872 1
gene 2 1 17 -1.56235 0 308 -1.56235 0
gene 1 2 17 -0.763303 0 335 -0.763303 1
gene 3 17 17 -0.988617 1 392 -0.988617 0
gene 2 4 46 1.0897 0 489 1.0897 1
gene 2 46 5 -0.162722 0 490 -0.162722 1
gene 1 17 46 1.37174 0 521 1.37174 1
gene 1 3 46 -0.708967 0 617 -0.708967 1
gene 1 2 46 0.209241 0 650 0.209241 1
gene 1 1 46 -1.49656 0 657 -1.49656 1
gene 1 5 5 0.310174 1 671 0.310174 1
genomeend 1
